<?xml version="1.0"?>
<opencv_storage>
<stage9>
  <maxWeakCount>50</maxWeakCount>
  <stageThreshold>-1.6193389892578125e+00</stageThreshold>
  <weakClassifiers>
    <_>
      <internalNodes>
        0 -1 437198 -1.7054306808859110e-03</internalNodes>
      <leafValues>
        2.1994790434837341e-01 -3.6888477206230164e-01</leafValues></_>
    <_>
      <internalNodes>
        0 -1 167321 1.0541311930865049e-03</internalNodes>
      <leafValues>
        -1.8114970624446869e-01 3.2795214653015137e-01</leafValues></_>
    <_>
      <internalNodes>
        0 -1 349558 2.0847262931056321e-05</internalNodes>
      <leafValues>
        -2.8288328647613525e-01 1.9144211709499359e-01</leafValues></_>
    <_>
      <internalNodes>
        0 -1 20668 6.9042812356201466e-06</internalNodes>
      <leafValues>
        1.4500951766967773e-01 -3.2893374562263489e-01</leafValues></_>
    <_>
      <internalNodes>
        0 -1 430286 -8.3387549966573715e-04</internalNodes>
      <leafValues>
        3.8732913136482239e-01 -1.1515910178422928e-01</leafValues></_>
    <_>
      <internalNodes>
        0 -1 337583 3.6203936906531453e-04</internalNodes>
      <leafValues>
        4.8325959593057632e-02 -8.2372564077377319e-01</leafValues></_>
    <_>
      <internalNodes>
        0 -1 280214 6.1105657368898392e-04</internalNodes>
      <leafValues>
        -9.9474467337131500e-02 5.0673997402191162e-01</leafValues></_>
    <_>
      <internalNodes>
        0 -1 336400 -3.5646255128085613e-04</internalNodes>
      <leafValues>
        -7.0923793315887451e-01 6.1634235084056854e-02</leafValues></_>
    <_>
      <internalNodes>
        0 -1 335605 6.1506530073529575e-06</internalNodes>
      <leafValues>
        -1.6470386087894440e-01 2.8248408436775208e-01</leafValues></_>
    <_>
      <internalNodes>
        0 -1 323259 -2.1470947103807703e-05</internalNodes>
      <leafValues>
        2.1085596084594727e-01 -2.2190926969051361e-01</leafValues></_>
    <_>
      <internalNodes>
        0 -1 374437 1.4717404264956713e-03</internalNodes>
      <leafValues>
        -1.6996403038501740e-01 2.9390516877174377e-01</leafValues></_>
    <_>
      <internalNodes>
        0 -1 385496 -1.6004071221686900e-04</internalNodes>
      <leafValues>
        3.1693008542060852e-01 -1.5430521965026855e-01</leafValues></_>
    <_>
      <internalNodes>
        0 -1 64626 1.9899156689643860e-01</internalNodes>
      <leafValues>
        8.2800544798374176e-02 -4.4399014115333557e-01</leafValues></_>
    <_>
      <internalNodes>
        0 -1 63 -9.4532551884185523e-06</internalNodes>
      <leafValues>
        -4.1205838322639465e-01 1.0937958955764771e-01</leafValues></_>
    <_>
      <internalNodes>
        0 -1 1295 4.0171706676483154e-01</internalNodes>
      <leafValues>
        6.8953379988670349e-02 -5.8270889520645142e-01</leafValues></_>
    <_>
      <internalNodes>
        0 -1 63 7.1292583925242070e-06</internalNodes>
      <leafValues>
        1.0930216312408447e-01 -3.8834834098815918e-01</leafValues></_>
    <_>
      <internalNodes>
        0 -1 250626 -8.7430374696850777e-04</internalNodes>
      <leafValues>
        3.7347409129142761e-01 -1.2577044963836670e-01</leafValues></_>
    <_>
      <internalNodes>
        0 -1 335889 7.0906304754316807e-03</internalNodes>
      <leafValues>
        5.7547137141227722e-02 -8.5101169347763062e-01</leafValues></_>
    <_>
      <internalNodes>
        0 -1 250847 1.3779918663203716e-04</internalNodes>
      <leafValues>
        -1.7788535356521606e-01 2.6056271791458130e-01</leafValues></_>
    <_>
      <internalNodes>
        0 -1 265194 6.5145670669153333e-04</internalNodes>
      <leafValues>
        -8.9682318270206451e-02 4.4104912877082825e-01</leafValues></_>
    <_>
      <internalNodes>
        0 -1 268203 4.0001951856538653e-04</internalNodes>
      <leafValues>
        1.1831874400377274e-01 -3.8397124409675598e-01</leafValues></_>
    <_>
      <internalNodes>
        0 -1 295785 1.4374470993061550e-05</internalNodes>
      <leafValues>
        -2.0142385363578796e-01 2.3591284453868866e-01</leafValues></_>
    <_>
      <internalNodes>
        0 -1 361544 6.6370109561830759e-04</internalNodes>
      <leafValues>
        7.2484031319618225e-02 -6.5069681406021118e-01</leafValues></_>
    <_>
      <internalNodes>
        0 -1 267607 -2.9532602056860924e-03</internalNodes>
      <leafValues>
        5.9911251068115234e-01 -7.3078863322734833e-02</leafValues></_>
    <_>
      <internalNodes>
        0 -1 478198 2.2281976271187887e-05</internalNodes>
      <leafValues>
        1.0037469118833542e-01 -3.8520398736000061e-01</leafValues></_>
    <_>
      <internalNodes>
        0 -1 258148 -1.7958624812308699e-04</internalNodes>
      <leafValues>
        2.3354253172874451e-01 -1.6457247734069824e-01</leafValues></_>
    <_>
      <internalNodes>
        0 -1 338072 1.3912685062678065e-05</internalNodes>
      <leafValues>
        -2.8425002098083496e-01 1.2062444537878036e-01</leafValues></_>
    <_>
      <internalNodes>
        0 -1 345970 2.8576119802892208e-04</internalNodes>
      <leafValues>
        1.4977025985717773e-01 -2.5340989232063293e-01</leafValues></_>
    <_>
      <internalNodes>
        0 -1 327419 4.5767240226268768e-03</internalNodes>
      <leafValues>
        -2.1578125655651093e-01 1.9656683504581451e-01</leafValues></_>
    <_>
      <internalNodes>
        0 -1 302388 -2.7880400419235229e-02</internalNodes>
      <leafValues>
        6.2916839122772217e-01 -8.2231283187866211e-02</leafValues></_>
    <_>
      <internalNodes>
        0 -1 322884 -2.7658650651574135e-04</internalNodes>
      <leafValues>
        2.8263559937477112e-01 -1.1731801927089691e-01</leafValues></_>
    <_>
      <internalNodes>
        0 -1 431529 4.5427994336932898e-04</internalNodes>
      <leafValues>
        -1.0531435906887054e-01 3.4538605809211731e-01</leafValues></_>
    <_>
      <internalNodes>
        0 -1 347755 1.7785481759347022e-04</internalNodes>
      <leafValues>
        -1.6051462292671204e-01 2.1917581558227539e-01</leafValues></_>
    <_>
      <internalNodes>
        0 -1 321159 1.1628584004938602e-02</internalNodes>
      <leafValues>
        5.8210369199514389e-02 -7.3194181919097900e-01</leafValues></_>
    <_>
      <internalNodes>
        0 -1 325200 2.1918157290201634e-04</internalNodes>
      <leafValues>
        -2.2559699416160583e-01 1.5328598022460938e-01</leafValues></_>
    <_>
      <internalNodes>
        0 -1 310136 7.3894386878237128e-04</internalNodes>
      <leafValues>
        -9.6696212887763977e-02 3.7297868728637695e-01</leafValues></_>
    <_>
      <internalNodes>
        0 -1 338072 2.9579264810308814e-04</internalNodes>
      <leafValues>
        1.1404860764741898e-01 -3.9066740870475769e-01</leafValues></_>
    <_>
      <internalNodes>
        0 -1 263230 -7.4955314630642533e-04</internalNodes>
      <leafValues>
        3.4297201037406921e-01 -1.0613628476858139e-01</leafValues></_>
    <_>
      <internalNodes>
        0 -1 446162 7.4618437793105841e-04</internalNodes>
      <leafValues>
        -7.4435181915760040e-02 4.4024935364723206e-01</leafValues></_>
    <_>
      <internalNodes>
        0 -1 234187 -6.4669372513890266e-03</internalNodes>
      <leafValues>
        -4.5892122387886047e-01 7.9086378216743469e-02</leafValues></_>
    <_>
      <internalNodes>
        0 -1 390417 -1.5530146192759275e-03</internalNodes>
      <leafValues>
        3.3082380890846252e-01 -1.1151716858148575e-01</leafValues></_>
    <_>
      <internalNodes>
        0 -1 322838 3.3802986145019531e-02</internalNodes>
      <leafValues>
        6.6274262964725494e-02 -5.3172761201858521e-01</leafValues></_>
    <_>
      <internalNodes>
        0 -1 465468 1.2790149776265025e-04</internalNodes>
      <leafValues>
        9.4257630407810211e-02 -3.4480702877044678e-01</leafValues></_>
    <_>
      <internalNodes>
        0 -1 203042 -2.2835665731690824e-04</internalNodes>
      <leafValues>
        2.9889953136444092e-01 -1.1074199527502060e-01</leafValues></_>
    <_>
      <internalNodes>
        0 -1 351705 -2.3173660156317055e-04</internalNodes>
      <leafValues>
        -3.8132941722869873e-01 9.2167682945728302e-02</leafValues></_>
    <_>
      <internalNodes>
        0 -1 363450 -1.8939410438179038e-05</internalNodes>
      <leafValues>
        2.1321022510528564e-01 -1.7920058965682983e-01</leafValues></_>
    <_>
      <internalNodes>
        0 -1 325064 1.2373625067993999e-03</internalNodes>
      <leafValues>
        -1.0197812318801880e-01 3.3856743574142456e-01</leafValues></_>
    <_>
      <internalNodes>
        0 -1 294439 1.0428967885673046e-02</internalNodes>
      <leafValues>
        7.1243561804294586e-02 -5.4690283536911011e-01</leafValues></_>
    <_>
      <internalNodes>
        0 -1 308335 3.4964020596817136e-04</internalNodes>
      <leafValues>
        -2.0530782639980316e-01 1.6338990628719330e-01</leafValues></_>
    <_>
      <internalNodes>
        0 -1 323348 -4.9055979616241530e-05</internalNodes>
      <leafValues>
        2.3034302890300751e-01 -1.6680218279361725e-01</leafValues></_></weakClassifiers></stage9>
</opencv_storage>
