<?xml version="1.0"?>
<opencv_storage>
<stage19>
  <maxWeakCount>100</maxWeakCount>
  <stageThreshold>-1.7064512968063354e+00</stageThreshold>
  <weakClassifiers>
    <_>
      <internalNodes>
        0 -1 10349 1.3617090880870819e-02</internalNodes>
      <leafValues>
        -1.9949254393577576e-01 3.7175792455673218e-01</leafValues></_>
    <_>
      <internalNodes>
        0 -1 10349 1.3580712489783764e-02</internalNodes>
      <leafValues>
        -2.3146888706833124e-03 -1.</leafValues></_>
    <_>
      <internalNodes>
        0 -1 10349 1.3577989302575588e-02</internalNodes>
      <leafValues>
        -1.9814164261333644e-04 1.</leafValues></_>
    <_>
      <internalNodes>
        0 -1 10349 1.3551387004554272e-02</internalNodes>
      <leafValues>
        2.6469031581655145e-04 -1.</leafValues></_>
    <_>
      <internalNodes>
        0 -1 10349 1.3541428372263908e-02</internalNodes>
      <leafValues>
        -1.9821604655589908e-04 1.</leafValues></_>
    <_>
      <internalNodes>
        0 -1 10349 1.3447362929582596e-02</internalNodes>
      <leafValues>
        5.2980129839852452e-04 -1.</leafValues></_>
    <_>
      <internalNodes>
        0 -1 10349 1.3414239510893822e-02</internalNodes>
      <leafValues>
        -3.9666795055381954e-04 1.</leafValues></_>
    <_>
      <internalNodes>
        0 -1 10349 1.3391749933362007e-02</internalNodes>
      <leafValues>
        1.3253808720037341e-04 -1.</leafValues></_>
    <_>
      <internalNodes>
        0 -1 10349 1.3356803916394711e-02</internalNodes>
      <leafValues>
        -1.9845207862090319e-04 1.</leafValues></_>
    <_>
      <internalNodes>
        0 -1 10349 1.3285482302308083e-02</internalNodes>
      <leafValues>
        2.6518164668232203e-04 -1.</leafValues></_>
    <_>
      <internalNodes>
        0 -1 10349 1.2994865886867046e-02</internalNodes>
      <leafValues>
        -9.2704675626009703e-04 9.9639612436294556e-01</leafValues></_>
    <_>
      <internalNodes>
        0 -1 10349 1.2987377122044563e-02</internalNodes>
      <leafValues>
        1.3271372881717980e-04 -1.</leafValues></_>
    <_>
      <internalNodes>
        0 -1 10349 1.2977574020624161e-02</internalNodes>
      <leafValues>
        -1.9900497864000499e-04 1.</leafValues></_>
    <_>
      <internalNodes>
        0 -1 10349 1.2916064821183681e-02</internalNodes>
      <leafValues>
        3.9835346979089081e-04 -1.</leafValues></_>
    <_>
      <internalNodes>
        0 -1 10349 1.2877868488430977e-02</internalNodes>
      <leafValues>
        -3.9824767736718059e-04 1.</leafValues></_>
    <_>
      <internalNodes>
        0 -1 10349 1.2808322906494141e-02</internalNodes>
      <leafValues>
        3.9867107989266515e-04 -1.</leafValues></_>
    <_>
      <internalNodes>
        0 -1 10349 1.2664645910263062e-02</internalNodes>
      <leafValues>
        -4.6500589814968407e-04 9.9821835756301880e-01</leafValues></_>
    <_>
      <internalNodes>
        0 -1 10349 1.2485003098845482e-02</internalNodes>
      <leafValues>
        1.3988142600283027e-03 -9.9292027950286865e-01</leafValues></_>
    <_>
      <internalNodes>
        0 -1 10349 1.2220900505781174e-02</internalNodes>
      <leafValues>
        -1.1317207245156169e-03 9.9117010831832886e-01</leafValues></_>
    <_>
      <internalNodes>
        0 -1 345757 3.8133384659886360e-03</internalNodes>
      <leafValues>
        -5.4496273398399353e-02 5.3196012973785400e-01</leafValues></_>
    <_>
      <internalNodes>
        0 -1 345757 3.7932544946670532e-03</internalNodes>
      <leafValues>
        3.2085046404972672e-04 -1.</leafValues></_>
    <_>
      <internalNodes>
        0 -1 345757 3.7861741147935390e-03</internalNodes>
      <leafValues>
        -1.1846947745652869e-04 9.8057252168655396e-01</leafValues></_>
    <_>
      <internalNodes>
        0 -1 344754 -5.8891954831779003e-03</internalNodes>
      <leafValues>
        6.6200941801071167e-01 -3.6420486867427826e-02</leafValues></_>
    <_>
      <internalNodes>
        0 -1 351020 -1.2207174222567119e-05</internalNodes>
      <leafValues>
        9.5397487282752991e-02 -2.7700877189636230e-01</leafValues></_>
    <_>
      <internalNodes>
        0 -1 395098 8.6528994143009186e-04</internalNodes>
      <leafValues>
        -1.4064364135265350e-01 1.8769377470016479e-01</leafValues></_>
    <_>
      <internalNodes>
        0 -1 373677 8.0124166561290622e-04</internalNodes>
      <leafValues>
        5.5872403085231781e-02 -4.1008275747299194e-01</leafValues></_>
    <_>
      <internalNodes>
        0 -1 326223 1.5508994692936540e-05</internalNodes>
      <leafValues>
        -6.6166654229164124e-02 3.0721879005432129e-01</leafValues></_>
    <_>
      <internalNodes>
        0 -1 262432 -7.6550096273422241e-03</internalNodes>
      <leafValues>
        4.5537862181663513e-01 -5.5005289614200592e-02</leafValues></_>
    <_>
      <internalNodes>
        0 -1 338635 -6.4627651590853930e-04</internalNodes>
      <leafValues>
        -3.8522890210151672e-01 5.5177211761474609e-02</leafValues></_>
    <_>
      <internalNodes>
        0 -1 50025 -1.3247527182102203e-02</internalNodes>
      <leafValues>
        1.2922154366970062e-01 -1.8265323340892792e-01</leafValues></_>
    <_>
      <internalNodes>
        0 -1 411293 -3.1713163480162621e-04</internalNodes>
      <leafValues>
        3.2367193698883057e-01 -7.1546800434589386e-02</leafValues></_>
    <_>
      <internalNodes>
        0 -1 426692 -3.6072335205972195e-03</internalNodes>
      <leafValues>
        1.1097052693367004e-01 -2.2686985135078430e-01</leafValues></_>
    <_>
      <internalNodes>
        0 -1 294672 8.7966173887252808e-03</internalNodes>
      <leafValues>
        -5.5767275393009186e-02 4.4621795415878296e-01</leafValues></_>
    <_>
      <internalNodes>
        0 -1 335028 1.1315626325085759e-03</internalNodes>
      <leafValues>
        -1.2053067982196808e-01 2.1068763732910156e-01</leafValues></_>
    <_>
      <internalNodes>
        0 -1 336991 9.3611801275983453e-05</internalNodes>
      <leafValues>
        -1.9222581386566162e-01 1.4279867708683014e-01</leafValues></_>
    <_>
      <internalNodes>
        0 -1 360983 -4.5632255933014676e-05</internalNodes>
      <leafValues>
        1.5988661348819733e-01 -1.4979372918605804e-01</leafValues></_>
    <_>
      <internalNodes>
        0 -1 307391 -7.5633201049640775e-04</internalNodes>
      <leafValues>
        -3.2575744390487671e-01 8.1269830465316772e-02</leafValues></_>
    <_>
      <internalNodes>
        0 -1 148413 -9.9515933543443680e-03</internalNodes>
      <leafValues>
        4.5608660578727722e-01 -6.1369169503450394e-02</leafValues></_>
    <_>
      <internalNodes>
        0 -1 59252 7.9710356658324599e-05</internalNodes>
      <leafValues>
        9.4473123550415039e-02 -2.5569882988929749e-01</leafValues></_>
    <_>
      <internalNodes>
        0 -1 13242 2.6606556028127670e-02</internalNodes>
      <leafValues>
        -1.4754174649715424e-01 1.9192934036254883e-01</leafValues></_>
    <_>
      <internalNodes>
        0 -1 285653 2.8771287761628628e-03</internalNodes>
      <leafValues>
        -2.0575778186321259e-01 1.2513235211372375e-01</leafValues></_>
    <_>
      <internalNodes>
        0 -1 339469 -2.3162805882748216e-04</internalNodes>
      <leafValues>
        -2.3567707836627960e-01 8.8769361376762390e-02</leafValues></_>
    <_>
      <internalNodes>
        0 -1 249700 2.5074341101571918e-04</internalNodes>
      <leafValues>
        -5.6166492402553558e-02 3.5901665687561035e-01</leafValues></_>
    <_>
      <internalNodes>
        0 -1 385248 -1.5841513231862336e-05</internalNodes>
      <leafValues>
        1.5337879955768585e-01 -1.4379140734672546e-01</leafValues></_>
    <_>
      <internalNodes>
        0 -1 361667 -1.0654257494024932e-04</internalNodes>
      <leafValues>
        2.3246791958808899e-01 -9.3431293964385986e-02</leafValues></_>
    <_>
      <internalNodes>
        0 -1 383528 1.6837721341289580e-04</internalNodes>
      <leafValues>
        -1.5042629837989807e-01 1.4364615082740784e-01</leafValues></_>
    <_>
      <internalNodes>
        0 -1 363659 -2.0526407752186060e-05</internalNodes>
      <leafValues>
        1.5888358652591705e-01 -1.3508935272693634e-01</leafValues></_>
    <_>
      <internalNodes>
        0 -1 336439 -4.2429106542840600e-04</internalNodes>
      <leafValues>
        -6.7773973941802979e-01 3.4209351986646652e-02</leafValues></_>
    <_>
      <internalNodes>
        0 -1 201311 -1.0093008313560858e-04</internalNodes>
      <leafValues>
        2.7169749140739441e-01 -8.6133584380149841e-02</leafValues></_>
    <_>
      <internalNodes>
        0 -1 254961 -5.8177849277853966e-03</internalNodes>
      <leafValues>
        2.6603528857231140e-01 -7.7565245330333710e-02</leafValues></_>
    <_>
      <internalNodes>
        0 -1 384490 -1.5531866665696725e-05</internalNodes>
      <leafValues>
        1.2347629666328430e-01 -1.8905730545520782e-01</leafValues></_>
    <_>
      <internalNodes>
        0 -1 326235 -6.2602385878562927e-04</internalNodes>
      <leafValues>
        2.2597122192382812e-01 -1.0101523995399475e-01</leafValues></_>
    <_>
      <internalNodes>
        0 -1 309578 -8.2286372780799866e-03</internalNodes>
      <leafValues>
        -1.2073665857315063e-01 1.6476961970329285e-01</leafValues></_>
    <_>
      <internalNodes>
        0 -1 350595 1.2109414819860831e-04</internalNodes>
      <leafValues>
        3.9850618690252304e-02 -4.7534197568893433e-01</leafValues></_>
    <_>
      <internalNodes>
        0 -1 465506 3.1778519041836262e-04</internalNodes>
      <leafValues>
        7.2808235883712769e-02 -2.5641110539436340e-01</leafValues></_>
    <_>
      <internalNodes>
        0 -1 394092 -2.0016021153423935e-04</internalNodes>
      <leafValues>
        2.6014640927314758e-01 -7.9625099897384644e-02</leafValues></_>
    <_>
      <internalNodes>
        0 -1 362439 -1.3053385373495985e-05</internalNodes>
      <leafValues>
        9.9942177534103394e-02 -1.8651814758777618e-01</leafValues></_>
    <_>
      <internalNodes>
        0 -1 427142 -6.6347480751574039e-03</internalNodes>
      <leafValues>
        4.0392732620239258e-01 -5.0955746322870255e-02</leafValues></_>
    <_>
      <internalNodes>
        0 -1 348417 -1.4244706835597754e-04</internalNodes>
      <leafValues>
        2.3242864012718201e-01 -8.0419480800628662e-02</leafValues></_>
    <_>
      <internalNodes>
        0 -1 37 -7.1664048846287187e-06</internalNodes>
      <leafValues>
        -2.8000676631927490e-01 6.9426633417606354e-02</leafValues></_>
    <_>
      <internalNodes>
        0 -1 97628 -8.1543046690057963e-05</internalNodes>
      <leafValues>
        3.2381844520568848e-01 -6.7903265357017517e-02</leafValues></_>
    <_>
      <internalNodes>
        0 -1 87201 8.9962745551019907e-04</internalNodes>
      <leafValues>
        7.5138583779335022e-02 -3.0702942609786987e-01</leafValues></_>
    <_>
      <internalNodes>
        0 -1 307520 -5.1414105109870434e-04</internalNodes>
      <leafValues>
        -2.7372151613235474e-01 7.2029896080493927e-02</leafValues></_>
    <_>
      <internalNodes>
        0 -1 323259 -1.8362788978265598e-05</internalNodes>
      <leafValues>
        1.4020465314388275e-01 -1.5466649830341339e-01</leafValues></_>
    <_>
      <internalNodes>
        0 -1 371814 1.3722024050366599e-05</internalNodes>
      <leafValues>
        -1.1576438695192337e-01 1.8707849085330963e-01</leafValues></_>
    <_>
      <internalNodes>
        0 -1 370374 1.6348442295566201e-03</internalNodes>
      <leafValues>
        6.9703772664070129e-02 -3.3543115854263306e-01</leafValues></_>
    <_>
      <internalNodes>
        0 -1 294941 -5.9910467825829983e-04</internalNodes>
      <leafValues>
        4.3936777114868164e-01 -4.9761585891246796e-02</leafValues></_>
    <_>
      <internalNodes>
        0 -1 465482 -3.5828293766826391e-04</internalNodes>
      <leafValues>
        -2.3963862657546997e-01 8.1992141902446747e-02</leafValues></_>
    <_>
      <internalNodes>
        0 -1 438722 1.2509073712863028e-04</internalNodes>
      <leafValues>
        -8.3773858845233917e-02 2.4499085545539856e-01</leafValues></_>
    <_>
      <internalNodes>
        0 -1 313468 1.8777314107865095e-04</internalNodes>
      <leafValues>
        -6.2899410724639893e-02 2.8093746304512024e-01</leafValues></_>
    <_>
      <internalNodes>
        0 -1 319087 3.0452243983745575e-02</internalNodes>
      <leafValues>
        6.3227437436580658e-02 -3.0119386315345764e-01</leafValues></_>
    <_>
      <internalNodes>
        0 -1 294937 6.1506530073529575e-06</internalNodes>
      <leafValues>
        -1.2826466560363770e-01 1.5009306371212006e-01</leafValues></_>
    <_>
      <internalNodes>
        0 -1 431225 -1.7320003826171160e-04</internalNodes>
      <leafValues>
        2.1705080568790436e-01 -8.4698669612407684e-02</leafValues></_>
    <_>
      <internalNodes>
        0 -1 307677 -5.0055462867021561e-02</internalNodes>
      <leafValues>
        -6.3012242317199707e-01 3.1650725752115250e-02</leafValues></_>
    <_>
      <internalNodes>
        0 -1 431151 -7.2375941090285778e-04</internalNodes>
      <leafValues>
        2.4027773737907410e-01 -7.3465734720230103e-02</leafValues></_>
    <_>
      <internalNodes>
        0 -1 321323 -3.9268277585506439e-02</internalNodes>
      <leafValues>
        -5.2996778488159180e-01 3.3739279955625534e-02</leafValues></_>
    <_>
      <internalNodes>
        0 -1 361545 1.9223532581236213e-04</internalNodes>
      <leafValues>
        -1.5120440721511841e-01 1.1522391438484192e-01</leafValues></_>
    <_>
      <internalNodes>
        0 -1 362836 -6.1409004956658464e-06</internalNodes>
      <leafValues>
        1.4504897594451904e-01 -1.2692949175834656e-01</leafValues></_>
    <_>
      <internalNodes>
        0 -1 311022 9.6653107902966440e-05</internalNodes>
      <leafValues>
        4.5453179627656937e-02 -3.8296630978584290e-01</leafValues></_>
    <_>
      <internalNodes>
        0 -1 322488 3.3742166124284267e-04</internalNodes>
      <leafValues>
        -3.8237247616052628e-02 5.1652508974075317e-01</leafValues></_>
    <_>
      <internalNodes>
        0 -1 127345 2.3552481085062027e-02</internalNodes>
      <leafValues>
        5.3847700357437134e-02 -3.5750770568847656e-01</leafValues></_>
    <_>
      <internalNodes>
        0 -1 247960 1.7636379197938368e-05</internalNodes>
      <leafValues>
        -1.5263110399246216e-01 1.1406095325946808e-01</leafValues></_>
    <_>
      <internalNodes>
        0 -1 382166 -2.1543162802117877e-05</internalNodes>
      <leafValues>
        1.6449461877346039e-01 -1.0774214565753937e-01</leafValues></_>
    <_>
      <internalNodes>
        0 -1 371911 5.8419391280040145e-05</internalNodes>
      <leafValues>
        -1.2676514685153961e-01 1.5015879273414612e-01</leafValues></_>
    <_>
      <internalNodes>
        0 -1 392761 -6.1905070651846472e-06</internalNodes>
      <leafValues>
        1.6473743319511414e-01 -1.3108147680759430e-01</leafValues></_>
    <_>
      <internalNodes>
        0 -1 255355 1.5558584593236446e-02</internalNodes>
      <leafValues>
        -3.2104808837175369e-02 5.5332207679748535e-01</leafValues></_>
    <_>
      <internalNodes>
        0 -1 231852 -2.4855148047208786e-02</internalNodes>
      <leafValues>
        -6.3763064146041870e-01 3.3015035092830658e-02</leafValues></_>
    <_>
      <internalNodes>
        0 -1 337269 -3.4371190704405308e-03</internalNodes>
      <leafValues>
        1.6083005070686340e-01 -1.1858659237623215e-01</leafValues></_>
    <_>
      <internalNodes>
        0 -1 276266 -5.2759321406483650e-03</internalNodes>
      <leafValues>
        3.4249448776245117e-01 -5.2949801087379456e-02</leafValues></_>
    <_>
      <internalNodes>
        0 -1 461562 -4.3772980570793152e-03</internalNodes>
      <leafValues>
        5.5589389801025391e-01 -3.1959518790245056e-02</leafValues></_>
    <_>
      <internalNodes>
        0 -1 153505 6.7783780650643166e-06</internalNodes>
      <leafValues>
        1.2279499322175980e-01 -1.6312852501869202e-01</leafValues></_>
    <_>
      <internalNodes>
        0 -1 234650 -1.5827252063900232e-03</internalNodes>
      <leafValues>
        1.6822682321071625e-01 -1.1144409328699112e-01</leafValues></_>
    <_>
      <internalNodes>
        0 -1 55706 6.5049454569816589e-03</internalNodes>
      <leafValues>
        -7.7548272907733917e-02 2.4599146842956543e-01</leafValues></_>
    <_>
      <internalNodes>
        0 -1 59501 3.7462176987901330e-04</internalNodes>
      <leafValues>
        5.7842686772346497e-02 -3.2240286469459534e-01</leafValues></_>
    <_>
      <internalNodes>
        0 -1 268203 3.4065358340740204e-04</internalNodes>
      <leafValues>
        6.0194700956344604e-02 -2.5972023606300354e-01</leafValues></_>
    <_>
      <internalNodes>
        0 -1 282467 1.4723331332788803e-05</internalNodes>
      <leafValues>
        -1.4905087649822235e-01 1.5301692485809326e-01</leafValues></_>
    <_>
      <internalNodes>
        0 -1 322506 -6.6828579292632639e-05</internalNodes>
      <leafValues>
        1.6331554949283600e-01 -1.1677098274230957e-01</leafValues></_>
    <_>
      <internalNodes>
        0 -1 372567 5.3161045070737600e-04</internalNodes>
      <leafValues>
        3.9567001163959503e-02 -4.2296245694160461e-01</leafValues></_>
    <_>
      <internalNodes>
        0 -1 369649 -1.8295817077159882e-02</internalNodes>
      <leafValues>
        5.8689153194427490e-01 -3.3602699637413025e-02</leafValues></_>
    <_>
      <internalNodes>
        0 -1 382168 5.6467026297468692e-05</internalNodes>
      <leafValues>
        -1.0048926621675491e-01 1.9492213428020477e-01</leafValues></_></weakClassifiers></stage19>
</opencv_storage>
