<?xml version="1.0"?>
<opencv_storage>
<stage18>
  <maxWeakCount>100</maxWeakCount>
  <stageThreshold>-6.4229279756546021e-01</stageThreshold>
  <weakClassifiers>
    <_>
      <internalNodes>
        0 -1 262432 -8.3402954041957855e-03</internalNodes>
      <leafValues>
        3.8028168678283691e-01 -1.9540952146053314e-01</leafValues></_>
    <_>
      <internalNodes>
        0 -1 262432 -8.3048157393932343e-03</internalNodes>
      <leafValues>
        -1. -1.6243986319750547e-03</leafValues></_>
    <_>
      <internalNodes>
        0 -1 262432 -8.2862563431262970e-03</internalNodes>
      <leafValues>
        1. -5.8651168365031481e-04</leafValues></_>
    <_>
      <internalNodes>
        0 -1 262432 -8.2548214122653008e-03</internalNodes>
      <leafValues>
        -1. 2.6357400929555297e-04</leafValues></_>
    <_>
      <internalNodes>
        0 -1 262432 -8.2251243293285370e-03</internalNodes>
      <leafValues>
        1. -5.8719905791804194e-04</leafValues></_>
    <_>
      <internalNodes>
        0 -1 262432 -8.1043485552072525e-03</internalNodes>
      <leafValues>
        -1. 1.1878050863742828e-03</leafValues></_>
    <_>
      <internalNodes>
        0 -1 262432 -7.9179387539625168e-03</internalNodes>
      <leafValues>
        9.9034172296524048e-01 -2.4823097046464682e-03</leafValues></_>
    <_>
      <internalNodes>
        0 -1 262432 -7.8723579645156860e-03</internalNodes>
      <leafValues>
        -1. 3.9708291296847165e-04</leafValues></_>
    <_>
      <internalNodes>
        0 -1 262432 -7.8657232224941254e-03</internalNodes>
      <leafValues>
        1. -1.9712200446520001e-04</leafValues></_>
    <_>
      <internalNodes>
        0 -1 262432 -7.8420778736472130e-03</internalNodes>
      <leafValues>
        -1. 5.2994169527664781e-04</leafValues></_>
    <_>
      <internalNodes>
        0 -1 262432 -7.7994591556489468e-03</internalNodes>
      <leafValues>
        1. -3.9447727613151073e-04</leafValues></_>
    <_>
      <internalNodes>
        0 -1 262432 -7.7823298051953316e-03</internalNodes>
      <leafValues>
        -1. 2.6518161757849157e-04</leafValues></_>
    <_>
      <internalNodes>
        0 -1 262432 -7.7727241441607475e-03</internalNodes>
      <leafValues>
        1. -1.9735543173737824e-04</leafValues></_>
    <_>
      <internalNodes>
        0 -1 262432 -7.7550937421619892e-03</internalNodes>
      <leafValues>
        -1. 3.9803635445423424e-04</leafValues></_>
    <_>
      <internalNodes>
        0 -1 262432 -7.7307373285293579e-03</internalNodes>
      <leafValues>
        1. -3.9494468364864588e-04</leafValues></_>
    <_>
      <internalNodes>
        0 -1 262432 -7.7204126864671707e-03</internalNodes>
      <leafValues>
        -1. 1.3274922093842179e-04</leafValues></_>
    <_>
      <internalNodes>
        0 -1 262432 -7.6964232139289379e-03</internalNodes>
      <leafValues>
        1. -3.9525690954178572e-04</leafValues></_>
    <_>
      <internalNodes>
        0 -1 262432 -7.6834750361740589e-03</internalNodes>
      <leafValues>
        -1. 1.3278446567710489e-04</leafValues></_>
    <_>
      <internalNodes>
        0 -1 262432 -7.3726368136703968e-03</internalNodes>
      <leafValues>
        9.8708385229110718e-01 -2.0439457148313522e-03</leafValues></_>
    <_>
      <internalNodes>
        0 -1 262432 -7.3718340136110783e-03</internalNodes>
      <leafValues>
        -1. 1.3306435721460730e-04</leafValues></_>
    <_>
      <internalNodes>
        0 -1 262432 -7.3612108826637268e-03</internalNodes>
      <leafValues>
        1. -1.9892580166924745e-04</leafValues></_>
    <_>
      <internalNodes>
        0 -1 262432 -7.3425704613327980e-03</internalNodes>
      <leafValues>
        -1. 2.6624067686498165e-04</leafValues></_>
    <_>
      <internalNodes>
        0 -1 262432 -7.3184226639568806e-03</internalNodes>
      <leafValues>
        1. -3.9808917790651321e-04</leafValues></_>
    <_>
      <internalNodes>
        0 -1 262432 -7.3095289990305901e-03</internalNodes>
      <leafValues>
        -1. 1.3317351113073528e-04</leafValues></_>
    <_>
      <internalNodes>
        0 -1 262432 -7.3042698204517365e-03</internalNodes>
      <leafValues>
        1. -1.9916350720450282e-04</leafValues></_>
    <_>
      <internalNodes>
        0 -1 262432 -7.2680222801864147e-03</internalNodes>
      <leafValues>
        -1. 5.3304905304685235e-04</leafValues></_>
    <_>
      <internalNodes>
        0 -1 262432 -7.2866566479206085e-03</internalNodes>
      <leafValues>
        1. 5.0551014763033919e-11</leafValues></_>
    <_>
      <internalNodes>
        0 -1 262432 -7.2808591648936272e-03</internalNodes>
      <leafValues>
        -1. -2.3655192879506884e-15</leafValues></_>
    <_>
      <internalNodes>
        0 -1 262432 -7.2866566479206085e-03</internalNodes>
      <leafValues>
        1. -5.2037021881171791e-14</leafValues></_>
    <_>
      <internalNodes>
        0 -1 262432 -7.2808591648936272e-03</internalNodes>
      <leafValues>
        -1. -3.4121438178191452e-14</leafValues></_>
    <_>
      <internalNodes>
        0 -1 262432 -7.2866566479206085e-03</internalNodes>
      <leafValues>
        1. 6.8964155404156041e-14</leafValues></_>
    <_>
      <internalNodes>
        0 -1 262432 -7.2808591648936272e-03</internalNodes>
      <leafValues>
        -1. -1.3248881091071189e-14</leafValues></_>
    <_>
      <internalNodes>
        0 -1 262432 -7.2866566479206085e-03</internalNodes>
      <leafValues>
        1. -1.7161207689826187e-14</leafValues></_>
    <_>
      <internalNodes>
        0 -1 262432 -7.2808591648936272e-03</internalNodes>
      <leafValues>
        -1. 1.1274978380679344e-14</leafValues></_>
    <_>
      <internalNodes>
        0 -1 262432 -7.2866566479206085e-03</internalNodes>
      <leafValues>
        1. -1.6849763839516148e-14</leafValues></_>
    <_>
      <internalNodes>
        0 -1 262432 -7.2808591648936272e-03</internalNodes>
      <leafValues>
        -1. 1.1969021931066467e-14</leafValues></_>
    <_>
      <internalNodes>
        0 -1 262432 -7.2866566479206085e-03</internalNodes>
      <leafValues>
        1. -1.6213081360317086e-14</leafValues></_>
    <_>
      <internalNodes>
        0 -1 262432 -7.2808591648936272e-03</internalNodes>
      <leafValues>
        -1. -3.4221635399588057e-14</leafValues></_>
    <_>
      <internalNodes>
        0 -1 262432 -7.2866566479206085e-03</internalNodes>
      <leafValues>
        1. 6.9222771503611724e-14</leafValues></_>
    <_>
      <internalNodes>
        0 -1 262432 -7.2808591648936272e-03</internalNodes>
      <leafValues>
        -1. -1.3052185641158637e-14</leafValues></_>
    <_>
      <internalNodes>
        0 -1 262432 -7.2866566479206085e-03</internalNodes>
      <leafValues>
        1. -1.6911317723793118e-14</leafValues></_>
    <_>
      <internalNodes>
        0 -1 262432 -7.2808591648936272e-03</internalNodes>
      <leafValues>
        -1. 1.1977020463187389e-14</leafValues></_>
    <_>
      <internalNodes>
        0 -1 262432 -7.2866566479206085e-03</internalNodes>
      <leafValues>
        1. -1.0761336754431389e-14</leafValues></_>
    <_>
      <internalNodes>
        0 -1 262432 -7.2808591648936272e-03</internalNodes>
      <leafValues>
        -1. 1.7146196571934946e-14</leafValues></_>
    <_>
      <internalNodes>
        0 -1 262432 -7.2866566479206085e-03</internalNodes>
      <leafValues>
        1. -3.8666833813592524e-14</leafValues></_>
    <_>
      <internalNodes>
        0 -1 262432 -7.2808591648936272e-03</internalNodes>
      <leafValues>
        -1. -3.6872076877479069e-15</leafValues></_>
    <_>
      <internalNodes>
        0 -1 262432 -7.2866566479206085e-03</internalNodes>
      <leafValues>
        1. 6.8548228345736290e-14</leafValues></_>
    <_>
      <internalNodes>
        0 -1 262432 -7.2808591648936272e-03</internalNodes>
      <leafValues>
        -1. -1.1817673448776358e-15</leafValues></_>
    <_>
      <internalNodes>
        0 -1 262432 -7.2866566479206085e-03</internalNodes>
      <leafValues>
        1. -5.1383319121930601e-14</leafValues></_>
    <_>
      <internalNodes>
        0 -1 262432 -7.2808591648936272e-03</internalNodes>
      <leafValues>
        -1. -6.6495499902240011e-15</leafValues></_>
    <_>
      <internalNodes>
        0 -1 262432 -7.2866566479206085e-03</internalNodes>
      <leafValues>
        1. 6.5491821763918184e-14</leafValues></_>
    <_>
      <internalNodes>
        0 -1 262432 -7.2808591648936272e-03</internalNodes>
      <leafValues>
        -1. 3.3758508700731981e-15</leafValues></_>
    <_>
      <internalNodes>
        0 -1 262432 -7.2866566479206085e-03</internalNodes>
      <leafValues>
        1. -5.1842455025055689e-14</leafValues></_>
    <_>
      <internalNodes>
        0 -1 262432 -7.2808591648936272e-03</internalNodes>
      <leafValues>
        -1. -3.9474828706373769e-14</leafValues></_>
    <_>
      <internalNodes>
        0 -1 262432 -7.2866566479206085e-03</internalNodes>
      <leafValues>
        1. 7.0927781063798850e-14</leafValues></_>
    <_>
      <internalNodes>
        0 -1 262432 -7.2808591648936272e-03</internalNodes>
      <leafValues>
        -1. -1.3240130393693105e-14</leafValues></_>
    <_>
      <internalNodes>
        0 -1 262432 -7.2866566479206085e-03</internalNodes>
      <leafValues>
        1. -1.7433745622802942e-14</leafValues></_>
    <_>
      <internalNodes>
        0 -1 262432 -7.2808591648936272e-03</internalNodes>
      <leafValues>
        -1. 1.1842061009635467e-14</leafValues></_>
    <_>
      <internalNodes>
        0 -1 262432 -7.2866566479206085e-03</internalNodes>
      <leafValues>
        1. -1.6769671792155570e-14</leafValues></_>
    <_>
      <internalNodes>
        0 -1 262432 -7.2808591648936272e-03</internalNodes>
      <leafValues>
        -1. 1.7255414694219810e-14</leafValues></_>
    <_>
      <internalNodes>
        0 -1 262432 -7.2866566479206085e-03</internalNodes>
      <leafValues>
        1. -1.6849668971826055e-14</leafValues></_>
    <_>
      <internalNodes>
        0 -1 262432 -7.2808591648936272e-03</internalNodes>
      <leafValues>
        -1. 1.1976779905830369e-14</leafValues></_>
    <_>
      <internalNodes>
        0 -1 262432 -7.2866566479206085e-03</internalNodes>
      <leafValues>
        1. -1.6148046170626901e-14</leafValues></_>
    <_>
      <internalNodes>
        0 -1 262432 -7.2808591648936272e-03</internalNodes>
      <leafValues>
        -1. -3.4093503031591005e-14</leafValues></_>
    <_>
      <internalNodes>
        0 -1 262432 -7.2866566479206085e-03</internalNodes>
      <leafValues>
        1. 6.9226125754082851e-14</leafValues></_>
    <_>
      <internalNodes>
        0 -1 262432 -7.2808591648936272e-03</internalNodes>
      <leafValues>
        -1. -1.3043584868612217e-14</leafValues></_>
    <_>
      <internalNodes>
        0 -1 262432 -7.2866566479206085e-03</internalNodes>
      <leafValues>
        1. -1.6902113863788253e-14</leafValues></_>
    <_>
      <internalNodes>
        0 -1 262432 -7.2808591648936272e-03</internalNodes>
      <leafValues>
        -1. -3.4343662354101301e-14</leafValues></_>
    <_>
      <internalNodes>
        0 -1 262432 -7.2866566479206085e-03</internalNodes>
      <leafValues>
        1. 6.9027831952998830e-14</leafValues></_>
    <_>
      <internalNodes>
        0 -1 262432 -7.2808591648936272e-03</internalNodes>
      <leafValues>
        -1. -1.3227981400130637e-14</leafValues></_>
    <_>
      <internalNodes>
        0 -1 262432 -7.2866566479206085e-03</internalNodes>
      <leafValues>
        1. -1.7494921730385436e-14</leafValues></_>
    <_>
      <internalNodes>
        0 -1 262432 -7.2808591648936272e-03</internalNodes>
      <leafValues>
        -1. 1.1701087622158039e-14</leafValues></_>
    <_>
      <internalNodes>
        0 -1 262432 -7.2866566479206085e-03</internalNodes>
      <leafValues>
        1. -1.6339734808788232e-14</leafValues></_>
    <_>
      <internalNodes>
        0 -1 262432 -7.2808591648936272e-03</internalNodes>
      <leafValues>
        -1. -3.4393220557779255e-14</leafValues></_>
    <_>
      <internalNodes>
        0 -1 262432 -7.2866566479206085e-03</internalNodes>
      <leafValues>
        1. 6.9028970365279940e-14</leafValues></_>
    <_>
      <internalNodes>
        0 -1 262432 -7.2808591648936272e-03</internalNodes>
      <leafValues>
        -1. -1.3195143626831482e-14</leafValues></_>
    <_>
      <internalNodes>
        0 -1 262432 -7.2866566479206085e-03</internalNodes>
      <leafValues>
        1. -1.7356121829450663e-14</leafValues></_>
    <_>
      <internalNodes>
        0 -1 262432 -7.2808591648936272e-03</internalNodes>
      <leafValues>
        -1. 1.1703914171103027e-14</leafValues></_>
    <_>
      <internalNodes>
        0 -1 262432 -7.2866566479206085e-03</internalNodes>
      <leafValues>
        1. -1.6338626889693224e-14</leafValues></_>
    <_>
      <internalNodes>
        0 -1 262432 -7.2808591648936272e-03</internalNodes>
      <leafValues>
        -1. -3.4390215284882397e-14</leafValues></_>
    <_>
      <internalNodes>
        0 -1 262432 -7.2866566479206085e-03</internalNodes>
      <leafValues>
        1. 6.9032385602123270e-14</leafValues></_>
    <_>
      <internalNodes>
        0 -1 262432 -7.2808591648936272e-03</internalNodes>
      <leafValues>
        -1. -1.3192136659868729e-14</leafValues></_>
    <_>
      <internalNodes>
        0 -1 262432 -7.2866566479206085e-03</internalNodes>
      <leafValues>
        1. -1.7352896327987519e-14</leafValues></_>
    <_>
      <internalNodes>
        0 -1 262432 -7.2808591648936272e-03</internalNodes>
      <leafValues>
        -1. 1.1712634375295010e-14</leafValues></_>
    <_>
      <internalNodes>
        0 -1 262432 -7.2866566479206085e-03</internalNodes>
      <leafValues>
        1. -1.6329168919804182e-14</leafValues></_>
    <_>
      <internalNodes>
        0 -1 262432 -7.2808591648936272e-03</internalNodes>
      <leafValues>
        -1. -3.4389402133253033e-14</leafValues></_>
    <_>
      <internalNodes>
        0 -1 262432 -7.2866566479206085e-03</internalNodes>
      <leafValues>
        1. 6.9045260502921535e-14</leafValues></_>
    <_>
      <internalNodes>
        0 -1 262432 -7.2808591648936272e-03</internalNodes>
      <leafValues>
        -1. -1.3180439134867147e-14</leafValues></_>
    <_>
      <internalNodes>
        0 -1 262432 -7.2866566479206085e-03</internalNodes>
      <leafValues>
        1. -1.7339831691809068e-14</leafValues></_>
    <_>
      <internalNodes>
        0 -1 262432 -7.2808591648936272e-03</internalNodes>
      <leafValues>
        -1. 1.1716604418718791e-14</leafValues></_>
    <_>
      <internalNodes>
        0 -1 262432 -7.2866566479206085e-03</internalNodes>
      <leafValues>
        1. -1.6291021943991638e-14</leafValues></_>
    <_>
      <internalNodes>
        0 -1 262432 -7.2808591648936272e-03</internalNodes>
      <leafValues>
        -1. -3.4295791440054277e-14</leafValues></_>
    <_>
      <internalNodes>
        0 -1 262432 -7.2866566479206085e-03</internalNodes>
      <leafValues>
        1. 6.9079954972441071e-14</leafValues></_>
    <_>
      <internalNodes>
        0 -1 262432 -7.2808591648936272e-03</internalNodes>
      <leafValues>
        -1. -1.3180408641681046e-14</leafValues></_>
    <_>
      <internalNodes>
        0 -1 262432 -7.2866566479206085e-03</internalNodes>
      <leafValues>
        1. -1.7339801198622967e-14</leafValues></_>
    <_>
      <internalNodes>
        0 -1 262432 -7.2808591648936272e-03</internalNodes>
      <leafValues>
        -1. 1.1841820452278447e-14</leafValues></_>
    <_>
      <internalNodes>
        0 -1 262432 -7.2866566479206085e-03</internalNodes>
      <leafValues>
        1. -1.6290737340921360e-14</leafValues></_>
    <_>
      <internalNodes>
        0 -1 262432 -7.2808591648936272e-03</internalNodes>
      <leafValues>
        -1. -3.4295069767983216e-14</leafValues></_>
    <_>
      <internalNodes>
        0 -1 262432 -7.2866566479206085e-03</internalNodes>
      <leafValues>
        1. 6.9080239575511349e-14</leafValues></_>
    <_>
      <internalNodes>
        0 -1 262432 -7.2808591648936272e-03</internalNodes>
      <leafValues>
        -1. -1.3179657323456832e-14</leafValues></_></weakClassifiers></stage18>
</opencv_storage>
