<?xml version="1.0"?>
<opencv_storage>
<stage17>
  <maxWeakCount>95</maxWeakCount>
  <stageThreshold>-1.4977029561996460e+00</stageThreshold>
  <weakClassifiers>
    <_>
      <internalNodes>
        0 -1 281278 3.3800187520682812e-04</internalNodes>
      <leafValues>
        -4.5673832297325134e-01 -2.5328882038593292e-02</leafValues></_>
    <_>
      <internalNodes>
        0 -1 279508 -7.4306866154074669e-03</internalNodes>
      <leafValues>
        5.2708315849304199e-01 -6.0887429863214493e-02</leafValues></_>
    <_>
      <internalNodes>
        0 -1 439330 -9.5339468680322170e-04</internalNodes>
      <leafValues>
        2.7385044097900391e-01 -9.4085514545440674e-02</leafValues></_>
    <_>
      <internalNodes>
        0 -1 325064 9.5734221395105124e-04</internalNodes>
      <leafValues>
        -1.0030779242515564e-01 2.3672878742218018e-01</leafValues></_>
    <_>
      <internalNodes>
        0 -1 394977 1.8390215700492263e-05</internalNodes>
      <leafValues>
        -2.1285720169544220e-01 1.0856779664754868e-01</leafValues></_>
    <_>
      <internalNodes>
        0 -1 384045 2.4662450887262821e-03</internalNodes>
      <leafValues>
        1.1594691127538681e-01 -2.5360277295112610e-01</leafValues></_>
    <_>
      <internalNodes>
        0 -1 362860 -2.2479300387203693e-03</internalNodes>
      <leafValues>
        3.4026569128036499e-01 -6.6224642097949982e-02</leafValues></_>
    <_>
      <internalNodes>
        0 -1 344741 5.8437231928110123e-03</internalNodes>
      <leafValues>
        -6.1836209148168564e-02 6.0003805160522461e-01</leafValues></_>
    <_>
      <internalNodes>
        0 -1 405582 -7.5066287536174059e-05</internalNodes>
      <leafValues>
        1.8169993162155151e-01 -1.3215366005897522e-01</leafValues></_>
    <_>
      <internalNodes>
        0 -1 335956 4.8065260052680969e-03</internalNodes>
      <leafValues>
        8.6408242583274841e-02 -2.7417561411857605e-01</leafValues></_>
    <_>
      <internalNodes>
        0 -1 353620 3.0324433464556932e-04</internalNodes>
      <leafValues>
        -1.0784105211496353e-01 2.1906916797161102e-01</leafValues></_>
    <_>
      <internalNodes>
        0 -1 300321 6.8782959133386612e-03</internalNodes>
      <leafValues>
        -1.9646345078945160e-01 1.0841888189315796e-01</leafValues></_>
    <_>
      <internalNodes>
        0 -1 281945 1.4822323282714933e-04</internalNodes>
      <leafValues>
        -1.0361126810312271e-01 2.1624092757701874e-01</leafValues></_>
    <_>
      <internalNodes>
        0 -1 338072 1.8838061805581674e-05</internalNodes>
      <leafValues>
        -2.5530514121055603e-01 7.4387386441230774e-02</leafValues></_>
    <_>
      <internalNodes>
        0 -1 216087 1.9464475917629898e-04</internalNodes>
      <leafValues>
        -8.5141554474830627e-02 2.5352194905281067e-01</leafValues></_>
    <_>
      <internalNodes>
        0 -1 299223 -2.9716349672526121e-04</internalNodes>
      <leafValues>
        1.8654333055019379e-01 -1.1950523406267166e-01</leafValues></_>
    <_>
      <internalNodes>
        0 -1 180757 1.9758239388465881e-02</internalNodes>
      <leafValues>
        -3.1543884426355362e-02 7.4926233291625977e-01</leafValues></_>
    <_>
      <internalNodes>
        0 -1 187024 -3.7851650267839432e-03</internalNodes>
      <leafValues>
        4.0397498011589050e-01 -5.0598349422216415e-02</leafValues></_>
    <_>
      <internalNodes>
        0 -1 52 3.6060805432498455e-03</internalNodes>
      <leafValues>
        -5.7174436748027802e-02 3.7917622923851013e-01</leafValues></_>
    <_>
      <internalNodes>
        0 -1 94243 3.7884539779042825e-05</internalNodes>
      <leafValues>
        9.9227629601955414e-02 -2.4612966179847717e-01</leafValues></_>
    <_>
      <internalNodes>
        0 -1 364068 -4.9113044515252113e-03</internalNodes>
      <leafValues>
        2.1635986864566803e-01 -9.9658235907554626e-02</leafValues></_>
    <_>
      <internalNodes>
        0 -1 393587 1.0215290822088718e-03</internalNodes>
      <leafValues>
        -1.3694690167903900e-01 1.6331952810287476e-01</leafValues></_>
    <_>
      <internalNodes>
        0 -1 323909 1.1513946810737252e-04</internalNodes>
      <leafValues>
        5.1526661962270737e-02 -4.8375010490417480e-01</leafValues></_>
    <_>
      <internalNodes>
        0 -1 479429 -6.9133937358856201e-05</internalNodes>
      <leafValues>
        3.2089418172836304e-01 -7.1597479283809662e-02</leafValues></_>
    <_>
      <internalNodes>
        0 -1 281958 -1.9566202536225319e-04</internalNodes>
      <leafValues>
        2.0961967110633850e-01 -1.0371071845293045e-01</leafValues></_>
    <_>
      <internalNodes>
        0 -1 383970 6.9655405241064727e-05</internalNodes>
      <leafValues>
        -2.0518834888935089e-01 1.1883912980556488e-01</leafValues></_>
    <_>
      <internalNodes>
        0 -1 172622 8.2646533846855164e-02</internalNodes>
      <leafValues>
        3.0200781300663948e-02 -6.5013742446899414e-01</leafValues></_>
    <_>
      <internalNodes>
        0 -1 389530 3.9657240267843008e-04</internalNodes>
      <leafValues>
        -1.0157982259988785e-01 2.1379350125789642e-01</leafValues></_>
    <_>
      <internalNodes>
        0 -1 373040 5.3745333570986986e-04</internalNodes>
      <leafValues>
        3.8682576268911362e-02 -5.8006674051284790e-01</leafValues></_>
    <_>
      <internalNodes>
        0 -1 383438 -2.3597365725436248e-05</internalNodes>
      <leafValues>
        1.7515543103218079e-01 -1.3811302185058594e-01</leafValues></_>
    <_>
      <internalNodes>
        0 -1 360223 6.1506530073529575e-06</internalNodes>
      <leafValues>
        -1.2860558927059174e-01 2.0825149118900299e-01</leafValues></_>
    <_>
      <internalNodes>
        0 -1 360222 -1.3780063454760239e-05</internalNodes>
      <leafValues>
        1.5900439023971558e-01 -1.3212817907333374e-01</leafValues></_>
    <_>
      <internalNodes>
        0 -1 373025 6.3937004597391933e-06</internalNodes>
      <leafValues>
        -1.2786546349525452e-01 2.3232111334800720e-01</leafValues></_>
    <_>
      <internalNodes>
        0 -1 362860 7.3447276372462511e-04</internalNodes>
      <leafValues>
        -1.1511019617319107e-01 1.9419224560260773e-01</leafValues></_>
    <_>
      <internalNodes>
        0 -1 373987 -1.4857037967885844e-05</internalNodes>
      <leafValues>
        1.4596605300903320e-01 -1.5634742379188538e-01</leafValues></_>
    <_>
      <internalNodes>
        0 -1 477822 7.5547344749793410e-05</internalNodes>
      <leafValues>
        8.1325970590114594e-02 -3.0997374653816223e-01</leafValues></_>
    <_>
      <internalNodes>
        0 -1 382173 -1.0899512562900782e-04</internalNodes>
      <leafValues>
        -2.3049926757812500e-01 1.0157679766416550e-01</leafValues></_>
    <_>
      <internalNodes>
        0 -1 158025 1.3124896585941315e-01</internalNodes>
      <leafValues>
        2.2918204963207245e-01 -8.7890461087226868e-02</leafValues></_>
    <_>
      <internalNodes>
        0 -1 248280 -7.8137137461453676e-04</internalNodes>
      <leafValues>
        -2.4088892340660095e-01 9.7001820802688599e-02</leafValues></_>
    <_>
      <internalNodes>
        0 -1 321012 -3.0888530891388655e-03</internalNodes>
      <leafValues>
        -3.5140526294708252e-01 6.4116954803466797e-02</leafValues></_>
    <_>
      <internalNodes>
        0 -1 320752 -6.0714740538969636e-04</internalNodes>
      <leafValues>
        4.4287317991256714e-01 -5.6700587272644043e-02</leafValues></_>
    <_>
      <internalNodes>
        0 -1 371113 3.5763427149504423e-05</internalNodes>
      <leafValues>
        -1.3197226822376251e-01 1.7295524477958679e-01</leafValues></_>
    <_>
      <internalNodes>
        0 -1 364505 2.7102230887976475e-05</internalNodes>
      <leafValues>
        7.0268161594867706e-02 -3.1075212359428406e-01</leafValues></_>
    <_>
      <internalNodes>
        0 -1 1977 2.8425776958465576e-01</internalNodes>
      <leafValues>
        6.8083822727203369e-02 -3.1231468915939331e-01</leafValues></_>
    <_>
      <internalNodes>
        0 -1 323923 -1.4037400251254439e-04</internalNodes>
      <leafValues>
        -4.7014513611793518e-01 4.4400881975889206e-02</leafValues></_>
    <_>
      <internalNodes>
        0 -1 269328 -3.9438335224986076e-03</internalNodes>
      <leafValues>
        1.7642083764076233e-01 -1.2245243042707443e-01</leafValues></_>
    <_>
      <internalNodes>
        0 -1 352783 -2.7775921626016498e-04</internalNodes>
      <leafValues>
        -2.0388771593570709e-01 1.0315199941396713e-01</leafValues></_>
    <_>
      <internalNodes>
        0 -1 439591 4.5477190724341199e-05</internalNodes>
      <leafValues>
        1.7241021990776062e-01 -1.2011469900608063e-01</leafValues></_>
    <_>
      <internalNodes>
        0 -1 430920 -1.8475543707609177e-02</internalNodes>
      <leafValues>
        -6.9211941957473755e-01 3.2894875854253769e-02</leafValues></_>
    <_>
      <internalNodes>
        0 -1 201398 -3.4212981699965894e-04</internalNodes>
      <leafValues>
        2.7837491035461426e-01 -7.7914640307426453e-02</leafValues></_>
    <_>
      <internalNodes>
        0 -1 396638 9.2906143981963396e-04</internalNodes>
      <leafValues>
        -6.7963138222694397e-02 2.8122276067733765e-01</leafValues></_>
    <_>
      <internalNodes>
        0 -1 293524 -2.9109017923474312e-03</internalNodes>
      <leafValues>
        -6.7408204078674316e-01 2.9685027897357941e-02</leafValues></_>
    <_>
      <internalNodes>
        0 -1 299944 -7.1432879194617271e-03</internalNodes>
      <leafValues>
        4.7000941634178162e-01 -4.4619191437959671e-02</leafValues></_>
    <_>
      <internalNodes>
        0 -1 268203 4.0016023558564484e-04</internalNodes>
      <leafValues>
        6.6919274628162384e-02 -3.0347493290901184e-01</leafValues></_>
    <_>
      <internalNodes>
        0 -1 266836 2.4488804046995938e-04</internalNodes>
      <leafValues>
        -5.0181489437818527e-02 4.3541446328163147e-01</leafValues></_>
    <_>
      <internalNodes>
        0 -1 266830 6.2145913943822961e-06</internalNodes>
      <leafValues>
        -1.3664165139198303e-01 1.7079587280750275e-01</leafValues></_>
    <_>
      <internalNodes>
        0 -1 322816 -1.5674394671805203e-04</internalNodes>
      <leafValues>
        2.1312539279460907e-01 -1.0867465287446976e-01</leafValues></_>
    <_>
      <internalNodes>
        0 -1 321662 3.4049407986458391e-05</internalNodes>
      <leafValues>
        -1.6131174564361572e-01 1.4421632885932922e-01</leafValues></_>
    <_>
      <internalNodes>
        0 -1 346636 -2.0859589858446270e-04</internalNodes>
      <leafValues>
        -2.7677074074745178e-01 7.9573288559913635e-02</leafValues></_>
    <_>
      <internalNodes>
        0 -1 309217 1.6143623724929057e-05</internalNodes>
      <leafValues>
        -1.5203596651554108e-01 1.4321650564670563e-01</leafValues></_>
    <_>
      <internalNodes>
        0 -1 360906 -1.3726941688219085e-05</internalNodes>
      <leafValues>
        1.7408311367034912e-01 -1.3662114739418030e-01</leafValues></_>
    <_>
      <internalNodes>
        0 -1 970 -2.6046170387417078e-04</internalNodes>
      <leafValues>
        -2.4065408110618591e-01 8.0546267330646515e-02</leafValues></_>
    <_>
      <internalNodes>
        0 -1 35825 -3.5302742617204785e-05</internalNodes>
      <leafValues>
        3.7783798575401306e-01 -6.0816951096057892e-02</leafValues></_>
    <_>
      <internalNodes>
        0 -1 283119 -1.8666093819774687e-04</internalNodes>
      <leafValues>
        -3.3691462874412537e-01 6.4805120229721069e-02</leafValues></_>
    <_>
      <internalNodes>
        0 -1 338064 -6.2271260503621306e-06</internalNodes>
      <leafValues>
        1.0357592999935150e-01 -2.0205919444561005e-01</leafValues></_>
    <_>
      <internalNodes>
        0 -1 63 9.8271748356637545e-06</internalNodes>
      <leafValues>
        7.1653418242931366e-02 -2.8842490911483765e-01</leafValues></_>
    <_>
      <internalNodes>
        0 -1 230332 4.6646525152027607e-04</internalNodes>
      <leafValues>
        -9.0351186692714691e-02 2.3239386081695557e-01</leafValues></_>
    <_>
      <internalNodes>
        0 -1 180969 5.6216888129711151e-02</internalNodes>
      <leafValues>
        6.4558707177639008e-02 -3.2034766674041748e-01</leafValues></_>
    <_>
      <internalNodes>
        0 -1 462077 -1.1819137725979090e-03</internalNodes>
      <leafValues>
        -2.6706349849700928e-01 7.7181495726108551e-02</leafValues></_>
    <_>
      <internalNodes>
        0 -1 281818 -1.6368506476283073e-03</internalNodes>
      <leafValues>
        2.0077164471149445e-01 -1.0420993715524673e-01</leafValues></_>
    <_>
      <internalNodes>
        0 -1 226125 -5.1733019063249230e-04</internalNodes>
      <leafValues>
        1.6657859086990356e-01 -1.2947340309619904e-01</leafValues></_>
    <_>
      <internalNodes>
        0 -1 335625 5.3235767409205437e-03</internalNodes>
      <leafValues>
        2.6149125769734383e-02 -8.4644806385040283e-01</leafValues></_>
    <_>
      <internalNodes>
        0 -1 264253 -2.5063281645998359e-04</internalNodes>
      <leafValues>
        2.9486277699470520e-01 -7.2044439613819122e-02</leafValues></_>
    <_>
      <internalNodes>
        0 -1 347477 -6.1506530073529575e-06</internalNodes>
      <leafValues>
        1.3614247739315033e-01 -1.5520375967025757e-01</leafValues></_>
    <_>
      <internalNodes>
        0 -1 266206 -1.1930846609175205e-02</internalNodes>
      <leafValues>
        -5.1632779836654663e-01 3.7871651351451874e-02</leafValues></_>
    <_>
      <internalNodes>
        0 -1 423637 -1.8481741426512599e-04</internalNodes>
      <leafValues>
        3.1018877029418945e-01 -6.4830936491489410e-02</leafValues></_>
    <_>
      <internalNodes>
        0 -1 335792 -7.6050084317103028e-05</internalNodes>
      <leafValues>
        1.6512587666511536e-01 -1.1708525568246841e-01</leafValues></_>
    <_>
      <internalNodes>
        0 -1 323605 4.1891713044606149e-04</internalNodes>
      <leafValues>
        -7.3654226958751678e-02 2.7788081765174866e-01</leafValues></_>
    <_>
      <internalNodes>
        0 -1 312760 -1.0378524166299030e-04</internalNodes>
      <leafValues>
        -4.0699100494384766e-01 5.2389889955520630e-02</leafValues></_>
    <_>
      <internalNodes>
        0 -1 403523 3.2759195892140269e-04</internalNodes>
      <leafValues>
        -8.5110493004322052e-02 2.2677634656429291e-01</leafValues></_>
    <_>
      <internalNodes>
        0 -1 408518 2.2889967658556998e-04</internalNodes>
      <leafValues>
        -9.4441264867782593e-02 2.1006570756435394e-01</leafValues></_>
    <_>
      <internalNodes>
        0 -1 404521 1.1361828364897519e-04</internalNodes>
      <leafValues>
        7.9968854784965515e-02 -2.5885796546936035e-01</leafValues></_>
    <_>
      <internalNodes>
        0 -1 384152 1.3948210980743170e-03</internalNodes>
      <leafValues>
        -1.3239037990570068e-01 1.8218746781349182e-01</leafValues></_>
    <_>
      <internalNodes>
        0 -1 475432 -8.9479761663824320e-04</internalNodes>
      <leafValues>
        2.8672650456428528e-01 -7.0429645478725433e-02</leafValues></_>
    <_>
      <internalNodes>
        0 -1 213733 -1.4400175772607327e-02</internalNodes>
      <leafValues>
        -3.9189732074737549e-01 5.5691462010145187e-02</leafValues></_>
    <_>
      <internalNodes>
        0 -1 279301 4.0517191519029438e-04</internalNodes>
      <leafValues>
        -6.4660072326660156e-02 2.9549610614776611e-01</leafValues></_>
    <_>
      <internalNodes>
        0 -1 347674 -1.9533154554665089e-03</internalNodes>
      <leafValues>
        -4.6054539084434509e-01 4.3701924383640289e-02</leafValues></_>
    <_>
      <internalNodes>
        0 -1 164430 -2.0445253700017929e-02</internalNodes>
      <leafValues>
        -6.4018261432647705e-01 2.9848368838429451e-02</leafValues></_>
    <_>
      <internalNodes>
        0 -1 311727 6.1879644636064768e-04</internalNodes>
      <leafValues>
        -1.8498699367046356e-01 1.0925153642892838e-01</leafValues></_>
    <_>
      <internalNodes>
        0 -1 412343 -3.7213182076811790e-04</internalNodes>
      <leafValues>
        2.1554116904735565e-01 -1.0060349106788635e-01</leafValues></_>
    <_>
      <internalNodes>
        0 -1 335075 -4.7004623338580132e-03</internalNodes>
      <leafValues>
        -2.4204461276531219e-01 8.3835251629352570e-02</leafValues></_>
    <_>
      <internalNodes>
        0 -1 384835 -6.2245276239991654e-06</internalNodes>
      <leafValues>
        1.4594028890132904e-01 -1.5715861320495605e-01</leafValues></_>
    <_>
      <internalNodes>
        0 -1 292007 7.2375074960291386e-03</internalNodes>
      <leafValues>
        -3.2364320009946823e-02 7.3666471242904663e-01</leafValues></_>
    <_>
      <internalNodes>
        0 -1 386095 1.4606863260269165e-05</internalNodes>
      <leafValues>
        -8.6543314158916473e-02 2.4216860532760620e-01</leafValues></_>
    <_>
      <internalNodes>
        0 -1 201396 2.3461985983885825e-04</internalNodes>
      <leafValues>
        -9.4845235347747803e-02 2.2676794230937958e-01</leafValues></_></weakClassifiers></stage17>
</opencv_storage>
